{"learner":{"attributes":{"best_iteration":"9","best_ntree_limit":"10","scikit_learn":"{\"n_estimators\": 10, \"objective\": \"reg:squarederror\", \"max_depth\": 5, \"max_leaves\": null, \"max_bin\": null, \"grow_policy\": null, \"learning_rate\": 0.1, \"verbosity\": null, \"booster\": null, \"tree_method\": null, \"gamma\": null, \"min_child_weight\": null, \"max_delta_step\": null, \"subsample\": null, \"sampling_method\": null, \"colsample_bytree\": 0.3, \"colsample_bylevel\": null, \"colsample_bynode\": null, \"reg_alpha\": null, \"reg_lambda\": null, \"scale_pos_weight\": null, \"base_score\": null, \"missing\": NaN, \"num_parallel_tree\": null, \"random_state\": null, \"n_jobs\": null, \"monotone_constraints\": null, \"interaction_constraints\": null, \"importance_type\": null, \"gpu_id\": null, \"validate_parameters\": null, \"predictor\": null, \"enable_categorical\": false, \"feature_types\": null, \"max_cat_to_onehot\": null, \"max_cat_threshold\": null, \"eval_metric\": null, \"early_stopping_rounds\": null, \"callbacks\": null, \"kwargs\": {\"alpha\": 10}, \"_estimator_type\": \"regressor\"}"},"feature_names":["Open","High","Low","Adj Close","Volume","lag_1","lag_2","lag_3","lag_4","lag_5","lag_6","lag_7","lag_8","lag_9","lag_10"],"feature_types":["float","float","float","float","int","float","float","float","float","float","float","float","float","float","float"],"gradient_booster":{"model":{"gbtree_model_param":{"num_parallel_tree":"1","num_trees":"10","size_leaf_vector":"0"},"tree_info":[0,0,0,0,0,0,0,0,0,0],"trees":[{"base_weights":[4.9365166E1,2.5725267E1,2.3667743E2,1.7454865E1,6.870744E1,1.740829E2,2.757155E2,2.2387798E0,2.797128E1,5.406818E1,1.0217734E2,1.4679303E2,2.0409366E2,2.4743213E2,3.0279123E2,9.427753E-1,7.4557157E0,2.5559906E1,3.579818E1,4.8992615E1,6.6911224E1,8.9037285E1,1.1013156E2,4.3463945E-2,2.2612386E0,5.947082E0,1.1488248E1,1.9137627E1,2.670727E1,3.3325264E1,3.9787815E1,4.574107E1,5.3563442E1],"categories":[],"categories_nodes":[],"categories_segments":[],"categories_sizes":[],"default_left":[1,1,0,1,0,0,0,1,0,0,0,0,0,0,0,1,0,0,0,0,0,0,0,0,0,0,0,0,0,0,0,0,0],"id":0,"left_children":[1,3,5,7,9,11,13,15,17,19,21,-1,-1,-1,-1,23,25,27,29,31,-1,-1,-1,-1,-1,-1,-1,-1,-1,-1,-1,-1,-1],"loss_changes":[3.3347734E7,2.3760995E6,2.00988E6,8.976599E5,5.215955E5,2.34341E5,3.1626E5,1.5425878E4,6.109375E4,4.464775E4,2.238025E4,0E0,0E0,0E0,0E0,2.1597446E3,2.5253691E3,1.7754375E4,5.6186875E3,4.642E3,0E0,0E0,0E0,0E0,0E0,0E0,0E0,0E0,0E0,0E0,0E0,0E0,0E0],"parents":[2147483647,0,0,1,1,2,2,3,3,4,4,5,5,6,6,7,7,8,8,9,9,10,10,15,15,16,16,17,17,18,18,19,19],"right_children":[2,4,6,8,10,12,14,16,18,20,22,-1,-1,-1,-1,24,26,28,30,32,-1,-1,-1,-1,-1,-1,-1,-1,-1,-1,-1,-1,-1],"split_conditions":[1.31E2,4.332625E1,2.2442499E2,1.5574219E1,7.778E1,1.78715E2,2.7477502E2,4.7695312E0,3.119375E1,5.85375E1,9.942E1,1.4679303E1,2.0409367E1,2.4743214E1,3.0279123E1,1.614583E0,9.171875E0,2.3380001E1,3.706125E1,4.9984375E1,6.6911225E0,8.9037285E0,1.1013156E1,4.3463944E-3,2.2612385E-1,5.947082E-1,1.1488248E0,1.9137627E0,2.670727E0,3.3325264E0,3.9787815E0,4.574107E0,5.356344E0],"split_indices":[5,5,5,5,5,5,5,5,5,5,5,0,0,0,0,5,5,5,5,5,0,0,0,0,0,0,0,0,0,0,0,0,0],"split_type":[0,0,0,0,0,0,0,0,0,0,0,0,0,0,0,0,0,0,0,0,0,0,0,0,0,0,0,0,0,0,0,0,0],"sum_hessian":[7.532E3,6.689E3,8.43E2,5.611E3,1.078E3,3.26E2,5.17E2,2.294E3,3.317E3,7.52E2,3.26E2,1.74E2,1.52E2,2.58E2,2.59E2,1.84E3,4.54E2,2.54E3,7.77E2,5.43E2,2.09E2,1.28E2,1.98E2,1.099E3,7.41E2,3.34E2,1.2E2,3.89E2,2.151E3,4.87E2,2.9E2,3.25E2,2.18E2],"tree_param":{"num_deleted":"0","num_feature":"15","num_nodes":"33","size_leaf_vector":"0"}},{"base_weights":[4.4449425E1,2.326054E1,2.1392076E2,1.6948418E1,6.9953865E1,1.5983682E2,2.4985364E2,2.3975587E0,2.6704529E1,5.3778942E1,9.300719E1,1.3256451E2,1.8547797E2,2.2746791E2,2.764759E2,1.2447252E0,9.828229E0,2.3662418E1,3.5988163E1,4.8288628E1,6.1951595E1,8.2787445E1,1.0167737E2,1.11219116E-1,2.7454352E0,7.0400057E0,1.2596588E1,2.0931103E1,2.564809E1,3.2174103E1,3.9696507E1],"categories":[],"categories_nodes":[],"categories_segments":[],"categories_sizes":[],"default_left":[1,1,1,1,1,1,1,1,1,1,1,0,0,0,0,1,1,1,1,0,0,0,0,0,0,0,0,0,0,0,0],"id":1,"left_children":[1,3,5,7,9,11,13,15,17,19,21,-1,-1,-1,-1,23,25,27,29,-1,-1,-1,-1,-1,-1,-1,-1,-1,-1,-1,-1],"loss_changes":[2.7042968E7,1.9717792E6,1.582588E6,8.373499E5,2.9072E5,2.07895E5,2.30646E5,2.017923E4,9.830225E4,1.7040125E4,1.871225E4,0E0,0E0,0E0,0E0,3.465113E3,2.1618164E3,1.3445625E4,1.029525E4,0E0,0E0,0E0,0E0,0E0,0E0,0E0,0E0,0E0,0E0,0E0,0E0],"parents":[2147483647,0,0,1,1,2,2,3,3,4,4,5,5,6,6,7,7,8,8,9,9,10,10,15,15,16,16,17,17,18,18],"right_children":[2,4,6,8,10,12,14,16,18,20,22,-1,-1,-1,-1,24,26,28,30,-1,-1,-1,-1,-1,-1,-1,-1,-1,-1,-1,-1],"split_conditions":[1.3401001E2,4.8645E1,2.2949E2,1.6941406E1,8.264E1,1.7686499E2,2.8254E2,6.765625E0,3.353E1,6.227E1,1.0382E2,1.3256452E1,1.8547796E1,2.2746792E1,2.7647589E1,2.136719E0,1.11015625E1,2.6464375E1,4.0445E1,4.8288627E0,6.1951594E0,8.278745E0,1.0167737E1,1.1121912E-2,2.7454352E-1,7.040006E-1,1.2596588E0,2.0931103E0,2.564809E0,3.2174103E0,3.9696507E0],"split_indices":[0,0,0,0,0,0,0,0,0,0,0,0,0,0,0,0,0,0,0,0,0,0,0,0,0,0,0,0,0,0,0],"split_type":[0,0,0,0,0,0,0,0,0,0,0,0,0,0,0,0,0,0,0,0,0,0,0,0,0,0,0,0,0,0,0],"sum_hessian":[7.532E3,6.696E3,8.36E2,5.9E3,7.96E2,3.36E2,5E2,2.369E3,3.531E3,4.7E2,3.26E2,1.66E2,1.7E2,2.77E2,2.23E2,2.053E3,3.16E2,2.663E3,8.68E2,2.86E2,1.84E2,1.55E2,1.71E2,1.174E3,8.79E2,1.61E2,1.55E2,1.128E3,1.535E3,4.34E2,4.34E2],"tree_param":{"num_deleted":"0","num_feature":"15","num_nodes":"31","size_leaf_vector":"0"}},{"base_weights":[4.002317E1,2.0709806E1,1.9083478E2,1.4227092E1,5.5716858E1,1.3703409E2,2.2194621E2,1.7839152E0,2.2724615E1,4.3967667E1,8.150748E1,1.152717E2,1.5969041E2,1.9700876E2,2.441946E2,7.0987487E-1,5.9068356E0,2.0319551E1,2.8384111E1,3.907298E1,5.2118874E1,7.0308784E1,8.775617E1,2.3009666E2,2.655388E2,-5.1553193E-2,1.6313047E0,4.7954E0,8.999455E0,1.4248902E1,2.119736E1,2.6292398E1,3.21185E1,3.709833E1,4.1791107E1,4.8256897E1,5.7664944E1],"categories":[],"categories_nodes":[],"categories_segments":[],"categories_sizes":[],"default_left":[1,1,1,1,1,1,1,1,1,1,1,0,0,0,1,1,1,1,1,1,1,0,0,0,0,0,0,0,0,0,0,0,0,0,0,0,0],"id":2,"left_children":[1,3,5,7,9,11,13,15,17,19,21,-1,-1,-1,23,25,27,29,31,33,35,-1,-1,-1,-1,-1,-1,-1,-1,-1,-1,-1,-1,-1,-1,-1,-1],"loss_changes":[2.193514E7,1.514245E6,1.39711E6,5.9574925E5,3.1121025E5,1.34648E5,2.47082E5,1.006575E4,4.4520875E4,2.5738E4,1.4992E4,0E0,0E0,0E0,1.8499E4,1.2920967E3,1.4378379E3,1.1893E4,6.343625E3,9.75E1,1.8555E3,0E0,0E0,0E0,0E0,0E0,0E0,0E0,0E0,0E0,0E0,0E0,0E0,0E0,0E0,0E0,0E0],"parents":[2147483647,0,0,1,1,2,2,3,3,4,4,5,5,6,6,7,7,8,8,9,9,10,10,14,14,15,15,16,16,17,17,18,18,19,19,20,20],"right_children":[2,4,6,8,10,12,14,16,18,20,22,-1,-1,-1,24,26,28,30,32,34,36,-1,-1,-1,-1,-1,-1,-1,-1,-1,-1,-1,-1,-1,-1,-1,-1],"split_conditions":[1.22215034E2,4.4413124E1,2.138528E2,9.625011E0,7.582E1,1.6057541E2,2.6598187E2,4.2656255E0,3.0408125E1,5.5516876E1,9.1392426E1,1.152717E1,1.5969042E1,1.9700876E1,3.0207208E2,1.3342016E0,8.769531E0,2.25875E1,3.677E1,4.96375E1,6.6524994E1,7.0308785E0,8.775618E0,2.3009666E1,2.6553879E1,-5.1553193E-3,1.6313048E-1,4.7954002E-1,8.9994556E-1,1.4248903E0,2.119736E0,2.6292398E0,3.21185E0,3.7098331E0,4.179111E0,4.82569E0,5.7664943E0],"split_indices":[3,1,3,3,0,3,3,0,1,2,3,0,0,0,3,1,1,1,1,1,1,0,0,0,0,0,0,0,0,0,0,0,0,0,0,0,0],"split_type":[0,0,0,0,0,0,0,0,0,0,0,0,0,0,0,0,0,0,0,0,0,0,0,0,0,0,0,0,0,0,0,0,0,0,0,0,0],"sum_hessian":[7.532E3,6.678E3,8.54E2,5.636E3,1.042E3,3.15E2,5.39E2,2.288E3,3.348E3,7.18E2,3.24E2,1.64E2,1.51E2,2.59E2,2.8E2,1.818E3,4.7E2,2.354E3,9.94E2,4.53E2,2.65E2,1.21E2,2.03E2,1.76E2,1.04E2,9.9E2,8.28E2,3.5E2,1.2E2,3.01E2,2.053E3,6.44E2,3.5E2,2.73E2,1.8E2,1.63E2,1.02E2],"tree_param":{"num_deleted":"0","num_feature":"15","num_nodes":"37","size_leaf_vector":"0"}},{"base_weights":[3.6041824E1,1.9608294E1,1.7992458E2,1.4192824E1,6.3579075E1,1.466463E2,2.1080252E2,2.213971E0,2.2343596E1,4.785484E1,8.165601E1,1.17783005E2,1.62724E2,1.9624106E2,2.3277191E2,1.0391891E0,8.819647E0,1.9664595E1,3.1124708E1,4.2471504E1,5.5171383E1,7.416696E1,9.420388E1,4.7522324E-1,3.337421E0,6.503422E0,1.1212751E1,1.7783827E1,2.1914305E1,2.7617878E1,3.3847588E1],"categories":[],"categories_nodes":[],"categories_segments":[],"categories_sizes":[],"default_left":[1,1,1,1,1,1,1,1,1,1,1,0,0,0,0,1,1,1,1,0,0,0,0,0,0,0,0,0,0,0,0],"id":3,"left_children":[1,3,5,7,9,11,13,15,17,19,21,-1,-1,-1,-1,23,25,27,29,-1,-1,-1,-1,-1,-1,-1,-1,-1,-1,-1,-1],"loss_changes":[1.7806264E7,1.6085038E6,7.58792E5,5.8767425E5,2.0542375E5,1.520495E5,7.7352E4,1.8827201E4,8.316875E4,1.23959375E4,2.356175E4,0E0,0E0,0E0,0E0,2.6484492E3,1.7841855E3,1.0844875E4,6.42375E3,0E0,0E0,0E0,0E0,0E0,0E0,0E0,0E0,0E0,0E0,0E0,0E0],"parents":[2147483647,0,0,1,1,2,2,3,3,4,4,5,5,6,6,7,7,8,8,9,9,10,10,15,15,16,16,17,17,18,18],"right_children":[2,4,6,8,10,12,14,16,18,20,22,-1,-1,-1,-1,24,26,28,30,-1,-1,-1,-1,-1,-1,-1,-1,-1,-1,-1,-1],"split_conditions":[1.38625E2,5.28625E1,2.44025E2,1.795875E1,8.8205E1,1.89135E2,2.9254E2,7.148438E0,3.4627502E1,6.7465E1,1.14385E2,1.17783E1,1.62724E1,1.9624105E1,2.3277191E1,2.994141E0,1.24921875E1,2.72725E1,4.1851875E1,4.2471504E0,5.5171385E0,7.416696E0,9.420388E0,4.7522325E-2,3.337421E-1,6.5034217E-1,1.1212752E0,1.7783827E0,2.1914306E0,2.761788E0,3.3847587E0],"split_indices":[2,2,2,2,2,2,2,2,2,2,2,0,0,0,0,2,2,2,2,0,0,0,0,0,0,0,0,0,0,0,0],"split_type":[0,0,0,0,0,0,0,0,0,0,0,0,0,0,0,0,0,0,0,0,0,0,0,0,0,0,0,0,0,0,0],"sum_hessian":[7.532E3,6.761E3,7.71E2,6.021E3,7.4E2,3.74E2,3.97E2,2.439E3,3.582E3,3.98E2,3.42E2,1.37E2,2.37E2,2.45E2,1.52E2,2.073E3,3.66E2,2.748E3,8.34E2,2.34E2,1.64E2,2.19E2,1.23E2,1.669E3,4.04E2,1.9E2,1.76E2,1.504E3,1.244E3,3.71E2,4.63E2],"tree_param":{"num_deleted":"0","num_feature":"15","num_nodes":"31","size_leaf_vector":"0"}},{"base_weights":[3.2454212E1,1.7791142E1,1.6328404E2,1.2950366E1,5.9305817E1,1.3587314E2,1.921647E2,2.0349605E0,2.0336578E1,4.442175E1,7.441777E1,1.0829607E2,1.485949E2,1.805914E2,2.1357362E2,9.8665655E-1,8.338399E0,1.787657E1,2.894253E1,3.9874504E1,5.1426235E1,6.6707466E1,8.473636E1,4.5445588E-1,3.227695E0,6.121949E0,1.0160466E1,1.6411411E1,2.0563643E1,2.6274755E1,3.1898497E1],"categories":[],"categories_nodes":[],"categories_segments":[],"categories_sizes":[],"default_left":[1,1,1,1,1,1,1,1,1,1,1,0,0,0,0,1,1,1,1,0,0,0,0,0,0,0,0,0,0,0,0],"id":4,"left_children":[1,3,5,7,9,11,13,15,17,19,21,-1,-1,-1,-1,23,25,27,29,-1,-1,-1,-1,-1,-1,-1,-1,-1,-1,-1,-1],"loss_changes":[1.4446342E7,1.3600352E6,5.71468E5,4.8903894E5,1.545295E5,1.192145E5,4.8422E4,1.6094532E4,7.5631375E4,8.4709375E3,2.059925E4,0E0,0E0,0E0,0E0,2.4711145E3,1.1803809E3,1.038725E4,4.9045E3,0E0,0E0,0E0,0E0,0E0,0E0,0E0,0E0,0E0,0E0,0E0,0E0],"parents":[2147483647,0,0,1,1,2,2,3,3,4,4,5,5,6,6,7,7,8,8,9,9,10,10,15,15,16,16,17,17,18,18],"right_children":[2,4,6,8,10,12,14,16,18,20,22,-1,-1,-1,-1,24,26,28,30,-1,-1,-1,-1,-1,-1,-1,-1,-1,-1,-1,-1],"split_conditions":[1.40515E2,5.4464375E1,2.4938E2,1.8456562E1,8.97E1,1.95785E2,2.98485E2,7.5195312E0,3.5525E1,6.9895004E1,1.1217E2,1.0829607E1,1.4859489E1,1.8059141E1,2.1357363E1,3.3671875E0,1.31328125E1,2.8255001E1,4.47E1,3.9874504E0,5.1426234E0,6.670747E0,8.473636E0,4.5445587E-2,3.227695E-1,6.1219496E-1,1.0160466E0,1.6411412E0,2.0563643E0,2.6274755E0,3.1898496E0],"split_indices":[2,2,2,2,2,0,2,2,2,2,2,0,0,0,0,0,0,2,2,0,0,0,0,0,0,0,0,0,0,0,0],"split_type":[0,0,0,0,0,0,0,0,0,0,0,0,0,0,0,0,0,0,0,0,0,0,0,0,0,0,0,0,0,0,0],"sum_hessian":[7.532E3,6.774E3,7.58E2,6.068E3,7.06E2,3.92E2,3.66E2,2.45E3,3.618E3,3.58E2,3.48E2,1.27E2,2.65E2,2.44E2,1.22E2,2.103E3,3.47E2,2.817E3,8.01E2,2.22E2,1.36E2,2.04E2,1.44E2,1.704E3,3.99E2,1.61E2,1.86E2,1.83E3,9.87E2,4.28E2,3.73E2],"tree_param":{"num_deleted":"0","num_feature":"15","num_nodes":"31","size_leaf_vector":"0"}},{"base_weights":[2.9224174E1,1.543589E1,1.4207211E2,1.13070755E1,4.8141586E1,1.0855988E2,1.6677579E2,1.7431283E0,1.784993E1,3.701863E1,6.3010647E1,9.087667E1,1.2617107E2,1.5467616E2,1.8794212E2,7.474551E-1,6.579407E0,1.5547541E1,2.388078E1,3.289193E1,4.2370026E1,5.735156E1,7.108035E1,8.179447E1,1.0073174E2,-3.4241285E-2,1.7632492E0,4.477949E0,8.5708475E0,1.2991157E1,1.6507397E1,2.1050009E1,2.6443192E1],"categories":[],"categories_nodes":[],"categories_segments":[],"categories_sizes":[],"default_left":[1,1,1,1,0,1,1,1,1,1,1,1,0,0,0,1,1,1,1,0,0,0,0,0,0,0,0,0,0,0,0,0,0],"id":5,"left_children":[1,3,5,7,9,11,13,15,17,19,21,23,-1,-1,-1,25,27,29,31,-1,-1,-1,-1,-1,-1,-1,-1,-1,-1,-1,-1,-1,-1],"loss_changes":[1.1717426E7,9.054914E5,6.58001E5,3.729107E5,1.21038875E5,9.56725E4,8.7873E4,1.1594229E4,4.8388625E4,7.4159375E3,9.252625E3,5.956875E3,0E0,0E0,0E0,1.615758E3,1.5553223E3,5.7869375E3,6.0406875E3,0E0,0E0,0E0,0E0,0E0,0E0,0E0,0E0,0E0,0E0,0E0,0E0,0E0,0E0],"parents":[2147483647,0,0,1,1,2,2,3,3,4,4,5,5,6,6,7,7,8,8,9,9,10,10,11,11,15,15,16,16,17,17,18,18],"right_children":[2,4,6,8,10,12,14,16,18,20,22,24,-1,-1,-1,26,28,30,32,-1,-1,-1,-1,-1,-1,-1,-1,-1,-1,-1,-1,-1,-1],"split_conditions":[1.34985E2,5.055625E1,2.33505E2,1.758E1,8.4945E1,1.83975E2,2.88225E2,6.0664062E0,3.2595E1,6.35E1,1.0745E2,1.5176001E2,1.2617106E1,1.5467616E1,1.8794212E1,1.8346355E0,1.115625E1,2.5244999E1,3.9719376E1,3.289193E0,4.237003E0,5.735156E0,7.1080356E0,8.179447E0,1.0073174E1,-3.4241285E-3,1.7632492E-1,4.477949E-1,8.5708475E-1,1.2991157E0,1.6507397E0,2.105001E0,2.6443193E0],"split_indices":[2,2,2,2,6,2,2,2,2,2,2,2,0,0,0,12,2,2,2,0,0,0,0,0,0,0,0,0,0,0,0,0,0],"split_type":[0,0,0,0,0,0,0,0,0,0,0,0,0,0,0,0,0,0,0,0,0,0,0,0,0,0,0,0,0,0,0,0,0],"sum_hessian":[7.532E3,6.713E3,8.19E2,5.962E3,7.51E2,3.5E2,4.69E2,2.423E3,3.539E3,4.32E2,3.19E2,1.78E2,1.72E2,3.04E2,1.65E2,2.012E3,4.11E2,2.565E3,9.74E2,2.49E2,1.83E2,1.93E2,1.26E2,9.8E1,8E1,1.132E3,8.8E2,2.04E2,2.07E2,7.07E2,1.858E3,4.69E2,5.05E2],"tree_param":{"num_deleted":"0","num_feature":"15","num_nodes":"33","size_leaf_vector":"0"}},{"base_weights":[2.6316183E1,1.4438612E1,1.326015E2,1.0579064E1,4.8957294E1,1.1017241E2,1.561088E2,1.7948291E0,1.6685177E1,3.8056427E1,6.208064E1,8.855954E1,1.20437675E2,1.4769145E2,1.7730226E2,8.4594464E-1,7.338425E0,1.4725034E1,2.417853E1,3.3343822E1,4.4465652E1,5.6061367E1,7.009172E1,3.8088882E-1,2.892046E0,5.2835007E0,8.3751E0,1.3478318E1,1.7077757E1,2.2002523E1,2.6274143E1],"categories":[],"categories_nodes":[],"categories_segments":[],"categories_sizes":[],"default_left":[1,1,0,1,0,0,0,1,0,0,0,0,0,0,0,1,0,0,0,0,0,0,0,0,0,0,0,0,0,0,0],"id":6,"left_children":[1,3,5,7,9,11,13,15,17,19,21,-1,-1,-1,-1,23,25,27,29,-1,-1,-1,-1,-1,-1,-1,-1,-1,-1,-1,-1],"loss_changes":[9.50636E6,9.0176275E5,3.79265E5,3.2681325E5,9.4057E4,7.3992E4,3.6033E4,1.3073049E4,5.2073188E4,9.065875E3,9.61275E3,0E0,0E0,0E0,0E0,2.0015375E3,5.9458984E2,7.8355625E3,2.3272812E3,0E0,0E0,0E0,0E0,0E0,0E0,0E0,0E0,0E0,0E0,0E0,0E0],"parents":[2147483647,0,0,1,1,2,2,3,3,4,4,5,5,6,6,7,7,8,8,9,9,10,10,15,15,16,16,17,17,18,18],"right_children":[2,4,6,8,10,12,14,16,18,20,22,-1,-1,-1,-1,24,26,28,30,-1,-1,-1,-1,-1,-1,-1,-1,-1,-1,-1,-1],"split_conditions":[1.431E2,5.634375E1,2.5188E2,1.9868595E1,9.5619995E1,2.0058E2,3.0777002E2,7.933594E0,3.7695E1,7.2805E1,1.17925E2,8.855954E0,1.2043768E1,1.4769145E1,1.7730227E1,3.664063E0,1.3171875E1,2.8945E1,4.58625E1,3.3343823E0,4.446565E0,5.606137E0,7.009172E0,3.8088884E-2,2.892046E-1,5.2835006E-1,8.3751005E-1,1.3478318E0,1.7077757E0,2.2002523E0,2.6274145E0],"split_indices":[6,6,6,6,6,6,6,6,6,6,6,0,0,0,0,6,6,6,6,0,0,0,0,0,0,0,0,0,0,0,0],"split_type":[0,0,0,0,0,0,0,0,0,0,0,0,0,0,0,0,0,0,0,0,0,0,0,0,0,0,0,0,0,0,0],"sum_hessian":[7.532E3,6.776E3,7.56E2,6.096E3,6.8E2,3.9E2,3.66E2,2.501E3,3.595E3,3.74E2,3.06E2,1.29E2,2.61E2,2.68E2,9.8E1,2.138E3,3.63E2,2.853E3,7.42E2,2.2E2,1.54E2,1.8E2,1.26E2,1.747E3,3.91E2,1.27E2,2.36E2,1.872E3,9.81E2,3.72E2,3.7E2],"tree_param":{"num_deleted":"0","num_feature":"15","num_nodes":"31","size_leaf_vector":"0"}},{"base_weights":[2.3697624E1,1.3045142E1,1.1986551E2,9.717218E0,4.615275E1,1.01015656E2,1.4256958E2,1.6509237E0,1.5268304E1,3.6423992E1,5.6749416E1,8.225674E1,1.10573845E2,1.359232E2,1.6550844E2,7.5909424E-1,6.648783E0,1.3322094E1,2.2378733E1,3.2257847E1,4.2151875E1,5.1127327E1,6.318617E1,1.31202685E-2,1.8466078E0,4.745066E0,7.5721207E0,1.22345085E1,1.5531463E1,2.0696354E1,2.5127127E1],"categories":[],"categories_nodes":[],"categories_segments":[],"categories_sizes":[],"default_left":[1,1,1,1,1,1,1,1,0,1,1,0,0,0,0,1,1,0,0,0,0,0,0,0,0,0,0,0,0,0,0],"id":7,"left_children":[1,3,5,7,9,11,13,15,17,19,21,-1,-1,-1,-1,23,25,27,29,-1,-1,-1,-1,-1,-1,-1,-1,-1,-1,-1,-1],"loss_changes":[7.7141135E6,7.463409E5,3.04566E5,2.7585394E5,6.08155E4,6.3207E4,2.6021E4,1.1130828E4,4.9868812E4,5.6755625E3,6.265625E3,0E0,0E0,0E0,0E0,1.7150342E3,5.070957E2,6.4285938E3,2.6375938E3,0E0,0E0,0E0,0E0,0E0,0E0,0E0,0E0,0E0,0E0,0E0,0E0],"parents":[2147483647,0,0,1,1,2,2,3,3,4,4,5,5,6,6,7,7,8,8,9,9,10,10,15,15,16,16,17,17,18,18],"right_children":[2,4,6,8,10,12,14,16,18,20,22,-1,-1,-1,-1,24,26,28,30,-1,-1,-1,-1,-1,-1,-1,-1,-1,-1,-1,-1],"split_conditions":[1.4082983E2,5.432727E1,2.5359866E2,2.0119999E1,9.3687904E1,2.0194757E2,3.1535938E2,4.946254E0,3.842375E1,7.1597946E1,1.1449202E2,8.225674E0,1.10573845E1,1.359232E1,1.6550844E1,1.495549E0,8.491798E0,2.9188751E1,4.7614998E1,3.2257848E0,4.2151875E0,5.112733E0,6.318617E0,1.3120269E-3,1.8466078E-1,4.7450662E-1,7.572121E-1,1.2234509E0,1.5531462E0,2.0696354E0,2.5127127E0],"split_indices":[3,3,3,11,3,3,3,3,9,3,3,0,0,0,0,3,3,9,9,0,0,0,0,0,0,0,0,0,0,0,0],"split_type":[0,0,0,0,0,0,0,0,0,0,0,0,0,0,0,0,0,0,0,0,0,0,0,0,0,0,0,0,0,0,0],"sum_hessian":[7.532E3,6.782E3,7.5E2,6.164E3,6.18E2,4.13E2,3.37E2,2.514E3,3.65E3,3.25E2,2.93E2,1.43E2,2.7E2,2.67E2,7E1,2.136E3,3.78E2,2.869E3,7.81E2,1.93E2,1.32E2,1.62E2,1.31E2,1.273E3,8.63E2,1.29E2,2.49E2,1.93E3,9.39E2,4.92E2,2.89E2],"tree_param":{"num_deleted":"0","num_feature":"15","num_nodes":"31","size_leaf_vector":"0"}},{"base_weights":[2.1340084E1,1.0929293E1,1.0115204E2,7.3018594E0,2.8111109E1,7.232137E1,1.1926034E2,9.218978E-1,1.179884E1,2.2480091E1,4.2557655E1,5.970822E1,8.408926E1,1.05387245E2,1.319022E2,3.552664E-1,3.3055685E0,9.983167E0,1.3663702E1,1.9896664E1,2.6761665E1,3.7175724E1,4.6297066E1,1.2536085E2,1.493749E2,-2.181448E-1,9.429006E-1,2.8460133E0,4.9908524E0,7.8800554E0,1.0912208E1,1.2628742E1,1.559008E1,1.8663279E1,2.1173618E1,2.444221E1,2.9419807E1],"categories":[],"categories_nodes":[],"categories_segments":[],"categories_sizes":[],"default_left":[1,1,0,1,0,0,0,1,0,0,0,0,0,0,0,1,0,0,0,0,0,0,0,0,0,0,0,0,0,0,0,0,0,0,0,0,0],"id":8,"left_children":[1,3,5,7,9,11,13,15,17,19,21,-1,-1,-1,23,25,27,29,31,33,35,-1,-1,-1,-1,-1,-1,-1,-1,-1,-1,-1,-1,-1,-1,-1,-1],"loss_changes":[6.256986E6,4.148427E5,4.43142E5,1.5780344E5,9.283881E4,4.37105E4,7.70295E4,3.0390273E3,1.05570625E4,8.2701875E3,3.96475E3,0E0,0E0,0E0,9.844E3,6.291371E2,2.4355225E2,2.9343438E3,2.6849688E3,3.8046875E1,6.597344E2,0E0,0E0,0E0,0E0,0E0,0E0,0E0,0E0,0E0,0E0,0E0,0E0,0E0,0E0,0E0,0E0],"parents":[2147483647,0,0,1,1,2,2,3,3,4,4,5,5,6,6,7,7,8,8,9,9,10,10,14,14,15,15,16,16,17,17,18,18,19,19,20,20],"right_children":[2,4,6,8,10,12,14,16,18,20,22,-1,-1,-1,24,26,28,30,32,34,36,-1,-1,-1,-1,-1,-1,-1,-1,-1,-1,-1,-1,-1,-1,-1,-1],"split_conditions":[1.2372E2,4.142875E1,2.2094E2,1.48203125E1,7.445E1,1.6179001E2,2.70655E2,4.6523438E0,2.7525002E1,5.3855E1,9.6854996E1,5.9708223E0,8.408926E0,1.0538725E1,3.19215E2,9.9913204E-1,1.00625E1,2.4107187E1,3.2605E1,4.6545624E1,6.3309998E1,3.7175725E0,4.629707E0,1.2536085E1,1.49374895E1,-2.181448E-2,9.429006E-2,2.8460133E-1,4.9908525E-1,7.8800553E-1,1.0912207E0,1.2628742E0,1.559008E0,1.8663279E0,2.1173618E0,2.444221E0,2.9419808E0],"split_indices":[5,5,5,5,5,5,5,13,5,5,10,0,0,0,5,5,5,5,5,5,5,0,0,0,0,0,0,0,0,0,0,0,0,0,0,0,0],"split_type":[0,0,0,0,0,0,0,0,0,0,0,0,0,0,0,0,0,0,0,0,0,0,0,0,0,0,0,0,0,0,0,0,0,0,0,0,0],"sum_hessian":[7.532E3,6.664E3,8.68E2,5.504E3,1.16E3,3.37E2,5.31E2,2.277E3,3.227E3,8.37E2,3.23E2,1.66E2,1.71E2,2.58E2,2.73E2,1.844E3,4.33E2,1.641E3,1.586E3,5.27E2,3.1E2,1.38E2,1.85E2,2.05E2,6.8E1,9.25E2,9.19E2,3.47E2,8.6E1,5.09E2,1.132E3,1.04E3,5.46E2,2.8E2,2.47E2,1.73E2,1.37E2],"tree_param":{"num_deleted":"0","num_feature":"15","num_nodes":"37","size_leaf_vector":"0"}},{"base_weights":[1.9218245E1,1.0599562E1,9.748569E1,7.768225E0,3.650852E1,7.810803E1,1.119598E2,1.3715582E0,1.22912655E1,2.7429653E1,4.4849457E1,6.487799E1,8.496615E1,1.0346206E2,1.247918E2,5.1097643E-1,4.9362006E0,1.0800869E1,1.7857605E1,2.4029188E1,3.0895773E1,3.9584656E1,5.0195652E1,-1.2777403E-1,1.1846263E0,3.1760838E0,5.877802E0,9.931781E0,1.2698739E1,1.6552914E1,2.0059086E1],"categories":[],"categories_nodes":[],"categories_segments":[],"categories_sizes":[],"default_left":[1,1,1,1,1,1,1,1,1,1,1,0,0,0,0,1,1,1,1,0,0,0,0,0,0,0,0,0,0,0,0],"id":9,"left_children":[1,3,5,7,9,11,13,15,17,19,21,-1,-1,-1,-1,23,25,27,29,-1,-1,-1,-1,-1,-1,-1,-1,-1,-1,-1,-1],"loss_changes":[5.079364E6,4.9714744E5,1.98869E5,1.7691269E5,4.8632125E4,2.2295875E4,3.1149E4,7.725675E3,2.9253562E4,2.515375E3,6.8539375E3,0E0,0E0,0E0,0E0,8.9153204E2,7.04542E2,4.3170938E3,1.4675469E3,0E0,0E0,0E0,0E0,0E0,0E0,0E0,0E0,0E0,0E0,0E0,0E0],"parents":[2147483647,0,0,1,1,2,2,3,3,4,4,5,5,6,6,7,7,8,8,9,9,10,10,15,15,16,16,17,17,18,18],"right_children":[2,4,6,8,10,12,14,16,18,20,22,-1,-1,-1,-1,24,26,28,30,-1,-1,-1,-1,-1,-1,-1,-1,-1,-1,-1,-1],"split_conditions":[1.46515E2,5.7415E1,2.4270999E2,2.06875E1,9.2990005E1,1.95405E2,2.91995E2,6.5039062E0,3.8068436E1,7.0225E1,1.11990005E2,6.487799E0,8.496615E0,1.0346206E1,1.247918E1,1.4279516E0,1.175E1,2.9455E1,4.7372498E1,2.4029188E0,3.0895774E0,3.9584656E0,5.019565E0,-1.2777403E-2,1.1846264E-1,3.176084E-1,5.877802E-1,9.9317807E-1,1.269874E0,1.6552914E0,2.0059087E0],"split_indices":[6,0,0,0,0,0,0,0,0,0,0,0,0,0,0,0,0,0,0,0,0,0,0,0,0,0,0,0,0,0,0],"split_type":[0,0,0,0,0,0,0,0,0,0,0,0,0,0,0,0,0,0,0,0,0,0,0,0,0,0,0,0,0,0,0],"sum_hessian":[7.532E3,6.786E3,7.46E2,6.119E3,6.67E2,3.22E2,4.24E2,2.536E3,3.583E3,3.22E2,3.45E2,1.14E2,2.08E2,2.61E2,1.63E2,2.046E3,4.9E2,2.83E3,7.53E2,1.68E2,1.54E2,1.79E2,1.66E2,1.043E3,1.003E3,1.76E2,3.14E2,1.949E3,8.81E2,4.81E2,2.72E2],"tree_param":{"num_deleted":"0","num_feature":"15","num_nodes":"31","size_leaf_vector":"0"}}]},"name":"gbtree"},"learner_model_param":{"base_score":"5E-1","boost_from_average":"1","num_class":"0","num_feature":"15","num_target":"1"},"objective":{"name":"reg:squarederror","reg_loss_param":{"scale_pos_weight":"1"}}},"version":[1,7,6]}