{"learner":{"attributes":{"best_iteration":"9","best_ntree_limit":"10","scikit_learn":"{\"n_estimators\": 10, \"objective\": \"reg:squarederror\", \"max_depth\": 5, \"max_leaves\": null, \"max_bin\": null, \"grow_policy\": null, \"learning_rate\": 0.1, \"verbosity\": null, \"booster\": null, \"tree_method\": null, \"gamma\": null, \"min_child_weight\": null, \"max_delta_step\": null, \"subsample\": null, \"sampling_method\": null, \"colsample_bytree\": 0.3, \"colsample_bylevel\": null, \"colsample_bynode\": null, \"reg_alpha\": null, \"reg_lambda\": null, \"scale_pos_weight\": null, \"base_score\": null, \"missing\": NaN, \"num_parallel_tree\": null, \"random_state\": null, \"n_jobs\": null, \"monotone_constraints\": null, \"interaction_constraints\": null, \"importance_type\": null, \"gpu_id\": null, \"validate_parameters\": null, \"predictor\": null, \"enable_categorical\": false, \"feature_types\": null, \"max_cat_to_onehot\": null, \"max_cat_threshold\": null, \"eval_metric\": null, \"early_stopping_rounds\": null, \"callbacks\": null, \"kwargs\": {\"alpha\": 10}, \"_estimator_type\": \"regressor\"}"},"feature_names":["Open","High","Low","Adj Close","Volume","lag_1","lag_2","lag_3","lag_4","lag_5","lag_6","lag_7","lag_8","lag_9","lag_10"],"feature_types":["float","float","float","float","int","float","float","float","float","float","float","float","float","float","float"],"gradient_booster":{"model":{"gbtree_model_param":{"num_parallel_tree":"1","num_trees":"10","size_leaf_vector":"0"},"tree_info":[0,0,0,0,0,0,0,0,0,0],"trees":[{"base_weights":[1.2247403E4,4.588902E3,3.229232E4,1.2387185E3,8.671947E3,2.4900768E4,4.2671203E4,4.8608307E2,3.3768235E3,7.605285E3,1.4689789E4,2.0783186E4,2.8022979E4,3.8329297E4,4.830422E4,3.481728E2,1.0291298E3,2.6746133E3,3.8637654E3,6.311714E3,8.899266E3,1.2094985E4,1.5672716E4,2.6439062E4,3.0478078E4,2.8155603E2,5.617274E2,8.4840796E2,1.269857E3,2.2041575E3,3.05328E3,3.523465E3,4.5558276E3,5.605108E3,6.8055044E3,8.240526E3,9.544661E3],"categories":[],"categories_nodes":[],"categories_segments":[],"categories_sizes":[],"default_left":[1,1,1,1,1,1,1,1,1,1,1,0,1,0,0,1,1,1,1,1,1,0,0,0,0,0,0,0,0,0,0,0,0,0,0,0,0],"id":0,"left_children":[1,3,5,7,9,11,13,15,17,19,21,-1,23,-1,-1,25,27,29,31,33,35,-1,-1,-1,-1,-1,-1,-1,-1,-1,-1,-1,-1,-1,-1,-1,-1],"loss_changes":[3.969922E11,2.5609834E10,5.3788738E10,1.6558102E9,5.305696E9,4.8166175E9,5.387256E9,5.677027E7,8.12393E7,1.1471831E9,1.3152666E8,0E0,1.1132928E8,0E0,0E0,8.511464E6,5.601184E6,1.3348032E7,2.0606208E7,8.838656E7,7.294771E7,0E0,0E0,0E0,0E0,0E0,0E0,0E0,0E0,0E0,0E0,0E0,0E0,0E0,0E0,0E0,0E0],"parents":[2147483647,0,0,1,1,2,2,3,3,4,4,5,5,6,6,7,7,8,8,9,9,10,10,12,12,15,15,16,16,17,17,18,18,19,19,20,20],"right_children":[2,4,6,8,10,12,14,16,18,20,22,-1,24,-1,-1,26,28,30,32,34,36,-1,-1,-1,-1,-1,-1,-1,-1,-1,-1,-1,-1,-1,-1,-1,-1],"split_conditions":[1.8421701E4,5.03298E3,3.397929E4,1.8948282E3,1.128167E4,2.4044709E4,4.260992E4,6.856334E2,3.2838452E3,7.5998394E3,1.4032796E4,2.0783186E3,2.8373605E4,3.8329297E3,4.830422E3,4.258283E2,1.0415408E3,2.6439697E3,4.0450098E3,6.137491E3,8.905479E3,1.2094985E3,1.5672716E3,2.6439062E3,3.0478079E3,2.8155603E1,5.617274E1,8.48408E1,1.2698571E2,2.2041576E2,3.05328E2,3.5234653E2,4.5558276E2,5.605108E2,6.805505E2,8.240527E2,9.544661E2],"split_indices":[5,5,5,5,5,5,5,5,5,5,5,0,5,0,0,5,5,5,5,5,5,0,0,0,0,0,0,0,0,0,0,0,0,0,0,0,0],"split_type":[0,0,0,0,0,0,0,0,0,0,0,0,0,0,0,0,0,0,0,0,0,0,0,0,0,0,0,0,0,0,0,0,0,0,0,0,0],"sum_hessian":[2.586E3,1.872E3,7.14E2,1.029E3,8.43E2,4.19E2,2.95E2,7.62E2,2.67E2,7.18E2,1.25E2,1.84E2,2.35E2,1.71E2,1.24E2,6.09E2,1.53E2,1.12E2,1.55E2,3.62E2,3.56E2,3.8E1,8.7E1,1.5E2,8.5E1,4.66E2,1.43E2,9E1,6.3E1,5.3E1,5.9E1,1.08E2,4.7E1,1.54E2,2.08E2,1.83E2,1.73E2],"tree_param":{"num_deleted":"0","num_feature":"15","num_nodes":"37","size_leaf_vector":"0"}},{"base_weights":[1.1031893E4,4.1470615E3,2.9121678E4,1.1228436E3,7.8399956E3,2.2547797E4,3.8577414E4,4.3261765E2,3.0402024E3,6.8601875E3,1.3317571E4,1.8791967E4,2.5388246E4,3.5285117E4,4.4798145E4,3.1834143E2,9.319697E2,2.060443E3,3.336423E3,5.719005E3,8.0503516E3,1.0949238E4,1.4205633E4,2.301202E4,2.6753535E4,2.3631876E2,4.739138E2,8.570459E2,1.3419065E3,3.052926E3,4.088194E3,5.2135664E3,6.3086787E3,7.489611E3,8.651333E3],"categories":[],"categories_nodes":[],"categories_segments":[],"categories_sizes":[],"default_left":[1,1,1,1,1,1,1,1,1,1,1,0,1,0,0,1,1,0,1,1,1,0,0,0,0,0,0,0,0,0,0,0,0,0,0],"id":1,"left_children":[1,3,5,7,9,11,13,15,17,19,21,-1,23,-1,-1,25,27,-1,29,31,33,-1,-1,-1,-1,-1,-1,-1,-1,-1,-1,-1,-1,-1,-1],"loss_changes":[3.2207707E11,2.093155E10,4.3450237E10,1.3644099E9,4.4381635E9,4.0351498E9,4.378329E9,4.3059504E7,7.23031E7,9.290076E8,1.1131699E8,0E0,1.5597568E8,0E0,0E0,7.792384E6,3.158624E6,0E0,3.1777536E7,7.727002E7,5.265613E7,0E0,0E0,0E0,0E0,0E0,0E0,0E0,0E0,0E0,0E0,0E0,0E0,0E0,0E0],"parents":[2147483647,0,0,1,1,2,2,3,3,4,4,5,5,6,6,7,7,8,8,9,9,10,10,12,12,15,15,16,16,18,18,19,19,20,20],"right_children":[2,4,6,8,10,12,14,16,18,20,22,-1,24,-1,-1,26,28,-1,30,32,34,-1,-1,-1,-1,-1,-1,-1,-1,-1,-1,-1,-1,-1,-1],"split_conditions":[1.848924E4,5.0798477E3,3.4494414E4,1.7806277E3,1.1294805E4,2.4146137E4,4.5365812E4,7.121415E2,2.9572617E3,7.6782715E3,1.4057562E4,1.8791967E3,2.7267332E4,3.5285117E3,4.4798145E3,3.8595782E2,1.2130558E3,2.0604431E2,3.896705E3,6.4875757E3,8.984632E3,1.0949238E3,1.4205634E3,2.301202E3,2.6753535E3,2.3631876E1,4.739138E1,8.570459E1,1.3419066E2,3.052926E2,4.0881943E2,5.213566E2,6.3086786E2,7.489611E2,8.651333E2],"split_indices":[0,0,0,0,0,0,0,0,0,0,0,0,0,0,0,0,0,0,0,0,0,0,0,0,0,0,0,0,0,0,0,0,0,0,0],"split_type":[0,0,0,0,0,0,0,0,0,0,0,0,0,0,0,0,0,0,0,0,0,0,0,0,0,0,0,0,0,0,0,0,0,0,0],"sum_hessian":[2.586E3,1.874E3,7.12E2,1.031E3,8.43E2,4.22E2,2.9E2,7.59E2,2.72E2,7.17E2,1.26E2,1.85E2,2.37E2,1.94E2,9.6E1,6.19E2,1.4E2,6.5E1,2.07E2,3.69E2,3.48E2,3.8E1,8.8E1,9.3E1,1.44E2,4.07E2,2.12E2,1.21E2,1.9E1,1.54E2,5.3E1,2.04E2,1.65E2,1.87E2,1.61E2],"tree_param":{"num_deleted":"0","num_feature":"15","num_nodes":"35","size_leaf_vector":"0"}},{"base_weights":[9.936966E3,3.7879155E3,2.6378531E4,1.0341282E3,7.1726978E3,2.0068254E4,3.438009E4,4.0779025E2,2.8277668E3,6.20339E3,1.2269447E4,1.6827086E4,2.2310486E4,3.0866754E4,3.973015E4,2.9574973E2,9.4379126E2,2.5108716E3,3.6440767E3,5.140456E3,7.2400615E3,9.938012E3,1.2993206E4,2.0817783E4,2.3817658E4,2.2707996E2,4.7974805E2,8.1618134E2,1.3729377E3,1.8457609E3,2.7011982E3,4.5262725E3,5.5286143E3,6.691964E3,7.806769E3],"categories":[],"categories_nodes":[],"categories_segments":[],"categories_sizes":[],"default_left":[1,1,1,1,1,1,1,1,1,1,1,0,1,0,0,1,1,1,0,1,1,0,0,0,0,0,0,0,0,0,0,0,0,0,0],"id":2,"left_children":[1,3,5,7,9,11,13,15,17,19,21,-1,23,-1,-1,25,27,29,-1,31,33,-1,-1,-1,-1,-1,-1,-1,-1,-1,-1,-1,-1,-1,-1],"loss_changes":[2.614455E11,1.755321E10,3.4855944E10,1.1671753E9,4.0982733E9,2.5021153E9,4.5810647E9,4.607004E7,6.0374784E7,7.4721894E8,9.675571E7,0E0,2.3412736E7,0E0,0E0,7.970464E6,6.141064E6,1.9906816E7,0E0,5.950771E7,5.8812416E7,0E0,0E0,0E0,0E0,0E0,0E0,0E0,0E0,0E0,0E0,0E0,0E0,0E0,0E0],"parents":[2147483647,0,0,1,1,2,2,3,3,4,4,5,5,6,6,7,7,8,8,9,9,10,10,12,12,15,15,16,16,17,17,19,19,20,20],"right_children":[2,4,6,8,10,12,14,16,18,20,22,-1,24,-1,-1,26,28,30,-1,32,34,-1,-1,-1,-1,-1,-1,-1,-1,-1,-1,-1,-1,-1,-1],"split_conditions":[1.9046326E4,5.192448E3,3.2958457E4,2.0470022E3,1.1407754E4,2.352741E4,4.3188258E4,7.922938E2,3.7429763E3,7.6538145E3,1.3965623E4,1.6827086E3,2.7622225E4,3.0866755E3,3.973015E3,4.6719818E2,1.3161685E3,2.7857227E3,3.6440768E2,6.1492466E3,8.945801E3,9.938012E2,1.2993207E3,2.0817783E3,2.3817659E3,2.2707996E1,4.7974804E1,8.161813E1,1.3729378E2,1.845761E2,2.7011984E2,4.5262726E2,5.5286145E2,6.691964E2,7.8067694E2],"split_indices":[3,3,3,3,3,3,3,3,3,3,3,0,3,0,0,1,0,3,0,3,3,0,0,0,0,0,0,0,0,0,0,0,0,0,0],"split_type":[0,0,0,0,0,0,0,0,0,0,0,0,0,0,0,0,0,0,0,0,0,0,0,0,0,0,0,0,0,0,0,0,0,0,0],"sum_hessian":[2.586E3,1.883E3,7.03E2,1.039E3,8.44E2,3.95E2,3.08E2,7.71E2,2.68E2,7.11E2,1.33E2,1.65E2,2.3E2,1.9E2,1.18E2,6.39E2,1.32E2,1.96E2,7.2E1,3.54E2,3.57E2,3.5E1,9.8E1,1.23E2,1.07E2,4.67E2,1.72E2,1.04E2,2.8E1,4.6E1,1.5E2,1.42E2,2.12E2,1.88E2,1.69E2],"tree_param":{"num_deleted":"0","num_feature":"15","num_nodes":"35","size_leaf_vector":"0"}},{"base_weights":[8.950645E3,3.3408162E3,2.3576904E4,8.80445E2,6.288746E3,1.7859014E4,3.085856E4,3.5206598E2,2.4176328E3,5.470566E3,1.0440282E4,1.500579E4,1.9973855E4,2.8075121E4,3.6450516E4,2.4545346E2,7.184164E2,1.8114747E3,2.715439E3,4.496404E3,6.351434E3,8.547145E3,1.128466E4,2.5613992E4,3.0009232E4,1.6569464E2,3.4290884E2,5.935534E2,9.2819885E2,1.5582664E3,2.0458774E3,2.5028552E3,3.1493477E3,4.0342727E3,4.8804517E3,5.8197666E3,6.7700166E3],"categories":[],"categories_nodes":[],"categories_segments":[],"categories_sizes":[],"default_left":[1,1,1,1,1,1,1,1,1,1,1,0,0,1,0,1,1,1,1,1,1,0,0,0,0,0,0,0,0,0,0,0,0,0,0,0,0],"id":3,"left_children":[1,3,5,7,9,11,13,15,17,19,21,-1,-1,23,-1,25,27,29,31,33,35,-1,-1,-1,-1,-1,-1,-1,-1,-1,-1,-1,-1,-1,-1,-1,-1],"loss_changes":[2.1218642E11,1.356476E10,2.9301211E10,8.283955E8,2.83332E9,2.1377106E9,3.8633472E9,2.9536808E7,4.2150784E7,5.831639E8,1.2554445E8,0E0,0E0,2.4946278E8,0E0,4.531896E6,3.91304E6,2.058336E6,8.019072E6,4.0920064E7,4.3259904E7,0E0,0E0,0E0,0E0,0E0,0E0,0E0,0E0,0E0,0E0,0E0,0E0,0E0,0E0,0E0,0E0],"parents":[2147483647,0,0,1,1,2,2,3,3,4,4,5,5,6,6,7,7,8,8,9,9,10,10,13,13,15,15,16,16,17,17,18,18,19,19,20,20],"right_children":[2,4,6,8,10,12,14,16,18,20,22,-1,-1,24,-1,26,28,30,32,34,36,-1,-1,-1,-1,-1,-1,-1,-1,-1,-1,-1,-1,-1,-1,-1,-1],"split_conditions":[1.707301E4,4.723286E3,3.1587951E4,1.7525632E3,1.0049179E4,2.2856156E4,4.3498215E4,6.1813196E2,3.0574155E3,7.160675E3,1.2504061E4,1.500579E3,1.9973856E3,3.7160062E4,3.6450515E3,3.212683E2,1.0091424E3,2.3181426E3,3.6609692E3,5.9223477E3,8.349922E3,8.547145E2,1.1284661E3,2.5613992E3,3.0009233E3,1.6569464E1,3.4290886E1,5.9355343E1,9.2819885E1,1.5582664E2,2.0458775E2,2.5028552E2,3.1493478E2,4.0342728E2,4.8804517E2,5.819767E2,6.7700165E2],"split_indices":[2,2,2,2,2,2,2,2,2,2,2,0,0,2,0,2,2,2,2,2,2,0,0,0,0,0,0,0,0,0,0,0,0,0,0,0,0],"split_type":[0,0,0,0,0,0,0,0,0,0,0,0,0,0,0,0,0,0,0,0,0,0,0,0,0,0,0,0,0,0,0,0,0,0,0,0,0],"sum_hessian":[2.586E3,1.87E3,7.16E2,1.02E3,8.5E2,4.03E2,3.13E2,7.6E2,2.6E2,7.12E2,1.38E2,1.75E2,2.28E2,2.13E2,1E2,5.9E2,1.7E2,8.8E1,1.72E2,3.41E2,3.71E2,4.6E1,9.2E1,1E2,1.13E2,3.26E2,2.64E2,1.09E2,6.1E1,4.6E1,4.2E1,1.2E2,5.2E1,1.6E2,1.81E2,1.7E2,2.01E2],"tree_param":{"num_deleted":"0","num_feature":"15","num_nodes":"37","size_leaf_vector":"0"}},{"base_weights":[8.062532E3,3.009554E3,2.123694E4,7.838904E2,5.6533906E3,1.6569012E4,2.8505658E4,3.1586014E2,2.159507E3,4.9106704E3,9.379503E3,1.4084793E4,1.9138678E4,2.6236277E4,3.363763E4,2.2452148E2,6.569143E2,1.5820515E3,2.4054675E3,4.0374717E3,5.709411E3,7.4249253E3,1.005395E4,1.2630482E4,1.5130389E4,1.7962691E4,2.1284295E4,2.4182262E4,2.8045928E4,1.5137103E2,3.160404E2,5.290018E2,8.096639E2,1.3209077E3,1.7201035E3,2.278059E3,2.9619937E3,3.623816E3,4.3921997E3,5.1238457E3,6.011339E3],"categories":[],"categories_nodes":[],"categories_segments":[],"categories_sizes":[],"default_left":[1,1,1,1,1,1,1,1,1,1,1,1,1,1,0,1,1,1,1,1,1,0,0,0,0,0,0,0,0,0,0,0,0,0,0,0,0,0,0,0,0],"id":4,"left_children":[1,3,5,7,9,11,13,15,17,19,21,23,25,27,-1,29,31,33,35,37,39,-1,-1,-1,-1,-1,-1,-1,-1,-1,-1,-1,-1,-1,-1,-1,-1,-1,-1,-1,-1],"loss_changes":[1.721524E11,1.1005015E10,2.385494E10,6.540683E8,2.3199744E9,2.5325158E9,2.36621E9,2.3518776E7,3.279872E7,4.755333E8,1.1104973E8,1.538007E8,1.547223E8,5.7237504E7,0E0,3.970974E6,2.68448E6,5.816E5,5.89216E6,3.4627584E7,3.468083E7,0E0,0E0,0E0,0E0,0E0,0E0,0E0,0E0,0E0,0E0,0E0,0E0,0E0,0E0,0E0,0E0,0E0,0E0,0E0,0E0],"parents":[2147483647,0,0,1,1,2,2,3,3,4,4,5,5,6,6,7,7,8,8,9,9,10,10,11,11,12,12,13,13,15,15,16,16,17,17,18,18,19,19,20,20],"right_children":[2,4,6,8,10,12,14,16,18,20,22,24,26,28,-1,30,32,34,36,38,40,-1,-1,-1,-1,-1,-1,-1,-1,-1,-1,-1,-1,-1,-1,-1,-1,-1,-1,-1,-1],"split_conditions":[1.707301E4,4.695325E3,3.4664883E4,1.6808331E3,9.96702E3,2.5692145E4,4.5509266E4,6.368009E2,3.007064E3,7.158954E3,1.1747201E4,2.054128E4,2.872391E4,3.88224E4,3.363763E3,3.3316675E2,9.5745746E2,2.213768E3,4.3010527E3,5.9223477E3,8.138498E3,7.4249255E2,1.005395E3,1.2630482E3,1.513039E3,1.7962692E3,2.1284294E3,2.4182263E3,2.8045928E3,1.5137103E1,3.160404E1,5.2900177E1,8.096639E1,1.3209077E2,1.7201036E2,2.2780591E2,2.9619937E2,3.623816E2,4.3921997E2,5.123846E2,6.011339E2],"split_indices":[2,2,2,2,2,0,2,2,2,2,2,2,2,2,0,2,2,2,0,2,2,0,0,0,0,0,0,0,0,0,0,0,0,0,0,0,0,0,0,0,0],"split_type":[0,0,0,0,0,0,0,0,0,0,0,0,0,0,0,0,0,0,0,0,0,0,0,0,0,0,0,0,0,0,0,0,0,0,0,0,0,0,0,0,0],"sum_hessian":[2.586E3,1.87E3,7.16E2,1.016E3,8.54E2,4.38E2,2.78E2,7.59E2,2.57E2,7.14E2,1.4E2,2.26E2,2.12E2,1.97E2,8.1E1,6E2,1.59E2,7.9E1,1.78E2,3.44E2,3.7E2,3.9E1,1.01E2,1E2,1.26E2,1.43E2,6.9E1,9.9E1,9.8E1,3.35E2,2.65E2,8.9E1,7E1,3.1E1,4.8E1,1.49E2,2.9E1,1.64E2,1.8E2,1.32E2,2.38E2],"tree_param":{"num_deleted":"0","num_feature":"15","num_nodes":"41","size_leaf_vector":"0"}},{"base_weights":[7.264002E3,2.851031E3,1.9513066E4,7.7559686E2,5.394036E3,1.5394012E4,2.5943441E4,2.9781018E2,2.0995742E3,4.578323E3,9.356572E3,1.3162331E4,1.7648416E4,2.4070082E4,3.0844848E4,2.152682E2,6.9630707E2,1.8121931E3,2.6607776E3,3.824471E3,5.3759414E3,7.7526973E3,9.956611E3,1.1941908E4,1.430454E4,1.6367888E4,1.9422348E4,2.199331E4,2.5480885E4,1.6340508E2,3.5680194E2,5.991309E2,1.0354926E3,1.3464358E3,1.9502399E3,3.5227507E3,4.3332925E3,5.0800767E3,6.1754355E3],"categories":[],"categories_nodes":[],"categories_segments":[],"categories_sizes":[],"default_left":[1,1,1,1,1,1,1,1,1,1,1,1,1,1,0,1,1,0,0,1,1,0,0,0,0,0,0,0,0,0,0,0,0,0,0,0,0,0,0],"id":5,"left_children":[1,3,5,7,9,11,13,15,17,19,21,23,25,27,-1,29,31,33,-1,35,37,-1,-1,-1,-1,-1,-1,-1,-1,-1,-1,-1,-1,-1,-1,-1,-1,-1,-1],"loss_changes":[1.3978382E11,1.003948E10,1.7743872E10,6.629259E8,2.720635E9,1.8804736E9,1.6994468E9,2.5234176E7,3.9969024E7,4.0686182E8,6.2178304E7,1.286185E8,1.4968013E8,1.6310272E7,0E0,4.641682E6,3.714072E6,9.364544E6,0E0,4.130611E7,4.9649664E7,0E0,0E0,0E0,0E0,0E0,0E0,0E0,0E0,0E0,0E0,0E0,0E0,0E0,0E0,0E0,0E0,0E0,0E0],"parents":[2147483647,0,0,1,1,2,2,3,3,4,4,5,5,6,6,7,7,8,8,9,9,10,10,11,11,12,12,13,13,15,15,16,16,17,17,19,19,20,20],"right_children":[2,4,6,8,10,12,14,16,18,20,22,24,26,28,-1,30,32,34,-1,36,38,-1,-1,-1,-1,-1,-1,-1,-1,-1,-1,-1,-1,-1,-1,-1,-1,-1,-1],"split_conditions":[1.9201746E4,5.227833E3,3.5553797E4,1.9732657E3,1.1214795E4,2.551819E4,4.665525E4,7.770283E2,3.60534E3,7.6876157E3,1.4848105E4,2.1295203E4,2.8772457E4,3.88224E4,3.0844849E3,4.703525E2,1.3476418E3,2.6439697E3,2.6607776E2,6.6100303E3,9.299904E3,7.752697E2,9.9566113E2,1.1941908E3,1.430454E3,1.6367888E3,1.9422347E3,2.199331E3,2.5480886E3,1.6340508E1,3.5680195E1,5.9913094E1,1.03549255E2,1.3464359E2,1.9502399E2,3.522751E2,4.3332925E2,5.0800766E2,6.175436E2],"split_indices":[2,2,2,2,2,2,2,2,2,2,2,2,2,2,0,2,2,6,0,2,2,0,0,0,0,0,0,0,0,0,0,0,0,0,0,0,0,0,0],"split_type":[0,0,0,0,0,0,0,0,0,0,0,0,0,0,0,0,0,0,0,0,0,0,0,0,0,0,0,0,0,0,0,0,0,0,0,0,0,0,0],"sum_hessian":[2.586E3,1.902E3,6.84E2,1.048E3,8.54E2,4.19E2,2.65E2,7.71E2,2.77E2,7.1E2,1.44E2,2.14E2,2.05E2,1.96E2,6.9E1,6.4E2,1.31E2,1.86E2,9.1E1,3.68E2,3.42E2,4.3E1,1.01E2,1.09E2,1.05E2,1.25E2,8E1,8.6E1,1.1E2,4.7E2,1.7E2,1.04E2,2.7E1,4.5E1,1.41E2,2.36E2,1.32E2,2.55E2,8.7E1],"tree_param":{"num_deleted":"0","num_feature":"15","num_nodes":"39","size_leaf_vector":"0"}},{"base_weights":[6.544771E3,2.4380457E3,1.7231432E4,6.581989E2,4.6055835E3,1.3397657E4,2.3042875E4,2.572584E2,1.7941973E3,4.0613381E3,7.8507334E3,1.1239824E4,1.5272031E4,2.113989E4,2.7041002E4,1.6493466E2,4.8789972E2,1.3948464E3,2.0591304E3,3.351598E3,4.7463804E3,6.554368E3,8.307303E3,1.0314516E4,1.20153545E4,1.4369853E4,1.701535E4,1.0574891E2,2.243485E2,3.6988632E2,6.247249E2,1.1579232E3,1.5798492E3,1.8817461E3,2.4664653E3,2.979798E3,3.6355083E3,4.488903E3,5.3435483E3],"categories":[],"categories_nodes":[],"categories_segments":[],"categories_sizes":[],"default_left":[1,1,0,1,0,0,0,1,0,0,0,0,0,0,0,0,0,0,0,0,0,0,0,0,0,0,0,0,0,0,0,0,0,0,0,0,0,0,0],"id":6,"left_children":[1,3,5,7,9,11,13,15,17,19,21,23,25,-1,-1,27,29,31,33,35,37,-1,-1,-1,-1,-1,-1,-1,-1,-1,-1,-1,-1,-1,-1,-1,-1,-1,-1],"loss_changes":[1.13493926E11,7.2111606E9,1.5687778E10,4.6773878E8,1.4568673E9,1.5874785E9,1.5886582E9,1.6117484E7,2.5448E7,3.360215E8,1.6428032E7,2.3670784E7,1.1691622E8,0E0,0E0,1.889441E6,3.26292E6,2.964752E6,6.80384E6,2.6995712E7,3.2190464E7,0E0,0E0,0E0,0E0,0E0,0E0,0E0,0E0,0E0,0E0,0E0,0E0,0E0,0E0,0E0,0E0,0E0,0E0],"parents":[2147483647,0,0,1,1,2,2,3,3,4,4,5,5,6,6,7,7,8,8,9,9,10,10,11,11,12,12,15,15,16,16,17,17,18,18,19,19,20,20],"right_children":[2,4,6,8,10,12,14,16,18,20,22,24,26,-1,-1,28,30,32,34,36,38,-1,-1,-1,-1,-1,-1,-1,-1,-1,-1,-1,-1,-1,-1,-1,-1,-1,-1],"split_conditions":[1.7315623E4,4.9304473E3,3.5618016E4,1.7982224E3,1.1370412E4,2.488773E4,4.6717547E4,5.648407E2,3.2450073E3,7.511682E3,1.4032796E4,2.0762875E4,2.9487957E4,2.113989E3,2.7041003E3,2.884006E2,8.8633545E2,2.4565964E3,4.0450098E3,6.2034976E3,9.356181E3,6.554368E2,8.307303E2,1.0314515E3,1.2015355E3,1.4369852E3,1.701535E3,1.0574891E1,2.243485E1,3.6988632E1,6.2472492E1,1.1579232E2,1.5798492E2,1.881746E2,2.4664653E2,2.9797983E2,3.6355084E2,4.488903E2,5.3435486E2],"split_indices":[6,6,6,6,6,6,6,6,6,6,6,6,6,0,0,6,6,6,6,6,6,0,0,0,0,0,0,0,0,0,0,0,0,0,0,0,0,0,0],"split_type":[0,0,0,0,0,0,0,0,0,0,0,0,0,0,0,0,0,0,0,0,0,0,0,0,0,0,0,0,0,0,0,0,0,0,0,0,0,0,0],"sum_hessian":[2.586E3,1.869E3,7.17E2,1.027E3,8.42E2,4.34E2,2.83E2,7.6E2,2.67E2,7.23E2,1.19E2,2.05E2,2.29E2,1.96E2,8.7E1,5.44E2,2.16E2,1.09E2,1.58E2,3.58E2,3.65E2,3.5E1,8.4E1,1E2,1.05E2,1.57E2,7.2E1,2.74E2,2.7E2,1.18E2,9.8E1,5.1E1,5.8E1,1.14E2,4.4E1,1.6E2,1.98E2,2.61E2,1.04E2],"tree_param":{"num_deleted":"0","num_feature":"15","num_nodes":"39","size_leaf_vector":"0"}},{"base_weights":[5.895776E3,2.3883784E3,1.6070487E4,7.1718256E2,4.6110386E3,1.2662469E4,2.1141123E4,2.4808241E2,1.849797E3,3.8119534E3,7.8378574E3,1.0908618E4,1.4441274E4,1.9433201E4,2.505861E4,1.7711723E2,6.0092303E2,1.535357E3,2.409956E3,3.2707913E3,4.5028013E3,6.917258E3,8.562436E3,9.814477E3,1.1647593E4,1.3334642E4,1.5744745E4,1.3065706E2,2.931352E2,4.968209E2,8.915621E2,1.2639126E3,1.6938195E3,2.935612E3,3.6045347E3,4.248058E3,5.0837534E3],"categories":[],"categories_nodes":[],"categories_segments":[],"categories_sizes":[],"default_left":[1,1,1,1,1,1,1,1,1,1,1,1,1,0,0,1,1,1,0,1,1,0,0,0,0,0,0,0,0,0,0,0,0,0,0,0,0],"id":7,"left_children":[1,3,5,7,9,11,13,15,17,19,21,23,25,-1,-1,27,29,31,-1,33,35,-1,-1,-1,-1,-1,-1,-1,-1,-1,-1,-1,-1,-1,-1,-1,-1],"loss_changes":[9.228307E10,7.147054E9,1.1189142E10,5.8396064E8,2.0998492E9,1.0869965E9,1.2856443E9,1.939148E7,5.2976256E7,2.334382E8,4.9345536E7,5.122048E7,7.104102E7,0E0,0E0,3.461102E6,3.476468E6,6.819488E6,0E0,3.141376E7,2.1080576E7,0E0,0E0,0E0,0E0,0E0,0E0,0E0,0E0,0E0,0E0,0E0,0E0,0E0,0E0,0E0,0E0],"parents":[2147483647,0,0,1,1,2,2,3,3,4,4,5,5,6,6,7,7,8,8,9,9,10,10,11,11,12,12,15,15,16,16,17,17,19,19,20,20],"right_children":[2,4,6,8,10,12,14,16,18,20,22,24,26,-1,-1,28,30,32,-1,34,36,-1,-1,-1,-1,-1,-1,-1,-1,-1,-1,-1,-1,-1,-1,-1,-1],"split_conditions":[1.9842219E4,5.6134883E3,3.6221906E4,2.2004878E3,1.2076473E4,2.6603652E4,4.7444445E4,8.572312E2,4.304087E3,8.208441E3,1.5988885E4,2.2002469E4,3.004929E4,1.9433202E3,2.505861E3,4.2560236E2,1.4355688E3,3.1996455E3,2.409956E2,6.8422437E3,9.66948E3,6.9172577E2,8.562436E2,9.814477E2,1.1647593E3,1.3334642E3,1.5744745E3,1.3065706E1,2.931352E1,4.968209E1,8.915621E1,1.2639126E2,1.6938194E2,2.9356122E2,3.6045346E2,4.2480582E2,5.0837534E2],"split_indices":[3,3,3,3,3,3,3,3,3,3,3,3,3,0,0,3,3,3,0,3,3,0,0,0,0,0,0,0,0,0,0,0,0,0,0,0,0],"split_type":[0,0,0,0,0,0,0,0,0,0,0,0,0,0,0,0,0,0,0,0,0,0,0,0,0,0,0,0,0,0,0,0,0,0,0,0,0],"sum_hessian":[2.586E3,1.924E3,6.62E2,1.099E3,8.25E2,3.98E2,2.64E2,7.78E2,3.21E2,6.63E2,1.62E2,2.04E2,1.94E2,1.88E2,7.6E1,6.49E2,1.29E2,2.08E2,1.13E2,3.75E2,2.88E2,7.6E1,8.6E1,8.8E1,1.16E2,1.11E2,8.3E1,4.65E2,1.84E2,9.7E1,3.2E1,8E1,1.28E2,1.92E2,1.83E2,2.06E2,8.2E1],"tree_param":{"num_deleted":"0","num_feature":"15","num_nodes":"37","size_leaf_vector":"0"}},{"base_weights":[5.311368E3,1.9736283E3,1.3980233E4,4.8786703E2,3.6754558E3,1.1107005E4,1.913331E4,1.9881746E2,1.3484259E3,3.2083152E3,6.1764126E3,9.324905E3,1.2942424E4,1.7746984E4,2.2855203E4,1.328149E2,3.7326907E2,9.232453E2,1.498175E3,2.5692815E3,3.721374E3,5.2945254E3,6.843608E3,8.5602E3,1.0302143E4,1.1979449E4,1.4343161E4,1.585502E4,1.8758383E4,8.1493034E1,1.8361363E2,3.0122266E2,4.6552142E2,1.3272285E3,1.619626E3,2.2996252E3,2.7826619E3,3.3646067E3,4.0319316E3],"categories":[],"categories_nodes":[],"categories_segments":[],"categories_sizes":[],"default_left":[1,1,1,1,1,1,1,1,1,1,1,1,1,1,0,1,1,0,1,1,1,0,0,0,0,0,0,0,0,0,0,0,0,0,0,0,0,0,0],"id":8,"left_children":[1,3,5,7,9,11,13,15,17,19,21,23,25,27,-1,29,31,-1,33,35,37,-1,-1,-1,-1,-1,-1,-1,-1,-1,-1,-1,-1,-1,-1,-1,-1,-1,-1],"loss_changes":[7.482558E10,4.723949E9,1.0432676E10,2.4821186E8,9.976781E8,1.3967852E9,9.1488256E8,8.56954E6,1.457392E7,2.3168205E8,4.366643E7,9.022669E7,1.3276365E8,6.772326E7,0E0,1.403247E6,1.214628E6,0E0,1.641024E6,1.2595456E7,3.1344128E7,0E0,0E0,0E0,0E0,0E0,0E0,0E0,0E0,0E0,0E0,0E0,0E0,0E0,0E0,0E0,0E0,0E0,0E0],"parents":[2147483647,0,0,1,1,2,2,3,3,4,4,5,5,6,6,7,7,8,8,9,9,10,10,11,11,12,12,13,13,15,15,16,16,18,18,19,19,20,20],"right_children":[2,4,6,8,10,12,14,16,18,20,22,24,26,28,-1,30,32,-1,34,36,38,-1,-1,-1,-1,-1,-1,-1,-1,-1,-1,-1,-1,-1,-1,-1,-1,-1,-1],"split_conditions":[1.7315623E4,4.588046E3,3.6694617E4,1.5100076E3,1.0628083E4,2.5927791E4,4.8414207E4,5.648407E2,2.6439697E3,7.0861514E3,1.485334E4,2.1604867E4,3.0366068E4,3.989523E4,2.2855203E3,2.858382E2,8.8004706E2,9.232453E1,3.4193647E3,5.7562705E3,8.495167E3,5.294526E2,6.843608E2,8.5602E2,1.0302142E3,1.197945E3,1.4343162E3,1.585502E3,1.8758383E3,8.149303E0,1.8361364E1,3.0122267E1,4.6552143E1,1.3272285E2,1.619626E2,2.2996252E2,2.782662E2,3.3646066E2,4.0319318E2],"split_indices":[5,5,5,5,5,5,5,5,5,5,5,5,5,5,0,5,5,0,5,5,5,0,0,0,0,0,0,0,0,0,0,0,0,0,0,0,0,0,0],"split_type":[0,0,0,0,0,0,0,0,0,0,0,0,0,0,0,0,0,0,0,0,0,0,0,0,0,0,0,0,0,0,0,0,0,0,0,0,0,0,0],"sum_hessian":[2.586E3,1.868E3,7.18E2,9.98E2,8.7E2,4.63E2,2.55E2,7.48E2,2.5E2,7.35E2,1.35E2,2.38E2,2.25E2,1.9E2,6.5E1,5.44E2,2.04E2,6.7E1,1.83E2,3.3E2,4.05E2,6.2E1,7.3E1,1.39E2,9.9E1,1.39E2,8.6E1,7.2E1,1.18E2,2.72E2,2.72E2,1.17E2,8.7E1,8.1E1,1.02E2,1.51E2,1.79E2,1.94E2,2.11E2],"tree_param":{"num_deleted":"0","num_feature":"15","num_nodes":"39","size_leaf_vector":"0"}},{"base_weights":[4.7853477E3,1.8298624E3,1.2734285E4,4.983873E2,3.4641313E3,1.0156336E4,1.7315604E4,1.9864296E2,1.3709182E3,2.952864E3,5.782341E3,8.744917E3,1.2014683E4,1.6162104E4,2.0957832E4,1.3902802E2,4.592514E2,1.137876E3,1.6246067E3,2.5231948E3,3.5083E3,4.770087E3,6.356071E3,7.816164E3,9.572929E3,1.1077321E4,1.29964795E4,1.4344312E4,1.700146E4,8.496978E1,2.0183243E2,3.813274E2,6.907482E2,8.92123E2,1.2254054E3,1.4369354E3,1.8445646E3,2.2899214E3,2.839167E3,3.305767E3,3.802721E3],"categories":[],"categories_nodes":[],"categories_segments":[],"categories_sizes":[],"default_left":[1,1,1,1,1,1,1,1,1,1,1,1,1,1,0,1,1,1,1,1,1,0,0,0,0,0,0,0,0,0,0,0,0,0,0,0,0,0,0,0,0],"id":9,"left_children":[1,3,5,7,9,11,13,15,17,19,21,23,25,27,-1,29,31,33,35,37,39,-1,-1,-1,-1,-1,-1,-1,-1,-1,-1,-1,-1,-1,-1,-1,-1,-1,-1,-1,-1],"loss_changes":[6.0752867E10,4.104324E9,8.102961E9,2.7197114E8,9.867233E8,1.0776576E9,7.1542374E8,1.1986226E7,1.3849728E7,1.5719117E8,5.784525E7,1.2494848E8,3.249152E7,5.334221E7,0E0,2.129079E6,2.323518E6,1.940112E6,2.476672E6,2.263552E7,5.306368E6,0E0,0E0,0E0,0E0,0E0,0E0,0E0,0E0,0E0,0E0,0E0,0E0,0E0,0E0,0E0,0E0,0E0,0E0,0E0,0E0],"parents":[2147483647,0,0,1,1,2,2,3,3,4,4,5,5,6,6,7,7,8,8,9,9,10,10,11,11,12,12,13,13,15,15,16,16,17,17,18,18,19,19,20,20],"right_children":[2,4,6,8,10,12,14,16,18,20,22,24,26,28,-1,30,32,34,36,38,40,-1,-1,-1,-1,-1,-1,-1,-1,-1,-1,-1,-1,-1,-1,-1,-1,-1,-1,-1,-1],"split_conditions":[1.925878E4,5.226353E3,3.688539E4,2.1187861E3,1.0718592E4,2.703502E4,4.903771E4,7.570519E2,3.4959673E3,7.9947227E3,1.469159E4,2.1918898E4,3.0686205E4,3.987418E4,2.0957832E3,3.4788416E2,1.2248434E3,2.6465479E3,4.3010527E3,6.692875E3,9.232117E3,4.770087E2,6.356071E2,7.816164E2,9.572929E2,1.1077322E3,1.299648E3,1.4344312E3,1.7001461E3,8.496978E0,2.0183243E1,3.813274E1,6.907482E1,8.92123E1,1.2254054E2,1.4369354E2,1.8445647E2,2.2899214E2,2.8391672E2,3.3057672E2,3.802721E2],"split_indices":[0,0,0,0,0,0,0,0,0,0,0,0,0,0,0,0,0,0,0,0,0,0,0,0,0,0,0,0,0,0,0,0,0,0,0,0,0,0,0,0,0],"split_type":[0,0,0,0,0,0,0,0,0,0,0,0,0,0,0,0,0,0,0,0,0,0,0,0,0,0,0,0,0,0,0,0,0,0,0,0,0,0,0,0,0],"sum_hessian":[2.586E3,1.886E3,7E2,1.04E3,8.46E2,4.5E2,2.5E2,7.75E2,2.65E2,6.95E2,1.51E2,2.59E2,1.91E2,1.94E2,5.6E1,6.32E2,1.43E2,1.41E2,1.24E2,3.95E2,3E2,5.8E1,9.3E1,1.27E2,1.32E2,1.04E2,8.7E1,6.7E1,1.27E2,3.41E2,2.91E2,1.09E2,3.4E1,4E1,1.01E2,7.1E1,5.3E1,2.32E2,1.63E2,1.85E2,1.15E2],"tree_param":{"num_deleted":"0","num_feature":"15","num_nodes":"41","size_leaf_vector":"0"}}]},"name":"gbtree"},"learner_model_param":{"base_score":"5E-1","boost_from_average":"1","num_class":"0","num_feature":"15","num_target":"1"},"objective":{"name":"reg:squarederror","reg_loss_param":{"scale_pos_weight":"1"}}},"version":[1,7,6]}